digraph Tree {
node [shape=box] ;
0 [label="X[7] <= 4.742\ngini = 0.475\nsamples = 428\nvalue = [413, 261]"] ;
1 [label="X[13] <= -47.5\ngini = 0.378\nsamples = 251\nvalue = [290, 98]"] ;
0 -> 1 [labeldistance=2.5, labelangle=45, headlabel="True"] ;
2 [label="X[16] <= 15.5\ngini = 0.37\nsamples = 248\nvalue = [289, 94]"] ;
1 -> 2 ;
3 [label="X[16] <= 8.5\ngini = 0.36\nsamples = 245\nvalue = [289, 89]"] ;
2 -> 3 ;
4 [label="X[18] <= 157756.0\ngini = 0.469\nsamples = 70\nvalue = [68, 41]"] ;
3 -> 4 ;
5 [label="X[7] <= 3.292\ngini = 0.287\nsamples = 51\nvalue = [62, 13]"] ;
4 -> 5 ;
6 [label="X[1] <= -48.5\ngini = 0.1\nsamples = 13\nvalue = [18, 1]"] ;
5 -> 6 ;
7 [label="gini = 0.0\nsamples = 1\nvalue = [0, 1]"] ;
6 -> 7 ;
8 [label="gini = 0.0\nsamples = 12\nvalue = [18, 0]"] ;
6 -> 8 ;
9 [label="X[0] <= 4.5\ngini = 0.337\nsamples = 38\nvalue = [44, 12]"] ;
5 -> 9 ;
10 [label="X[7] <= 3.5\ngini = 0.306\nsamples = 36\nvalue = [43, 10]"] ;
9 -> 10 ;
11 [label="X[2] <= -46.0\ngini = 0.353\nsamples = 22\nvalue = [27, 8]"] ;
10 -> 11 ;
12 [label="gini = 0.0\nsamples = 5\nvalue = [0, 8]"] ;
11 -> 12 ;
13 [label="gini = 0.0\nsamples = 17\nvalue = [27, 0]"] ;
11 -> 13 ;
14 [label="X[2] <= -47.5\ngini = 0.198\nsamples = 14\nvalue = [16, 2]"] ;
10 -> 14 ;
15 [label="gini = 0.0\nsamples = 2\nvalue = [0, 2]"] ;
14 -> 15 ;
16 [label="gini = 0.0\nsamples = 12\nvalue = [16, 0]"] ;
14 -> 16 ;
17 [label="X[18] <= 135.0\ngini = 0.444\nsamples = 2\nvalue = [1, 2]"] ;
9 -> 17 ;
18 [label="gini = 0.0\nsamples = 1\nvalue = [0, 2]"] ;
17 -> 18 ;
19 [label="gini = 0.0\nsamples = 1\nvalue = [1, 0]"] ;
17 -> 19 ;
20 [label="X[11] <= 1.5\ngini = 0.291\nsamples = 19\nvalue = [6, 28]"] ;
4 -> 20 ;
21 [label="X[2] <= 120260.0\ngini = 0.432\nsamples = 10\nvalue = [6, 13]"] ;
20 -> 21 ;
22 [label="gini = 0.0\nsamples = 7\nvalue = [0, 12]"] ;
21 -> 22 ;
23 [label="X[0] <= 4.5\ngini = 0.245\nsamples = 3\nvalue = [6, 1]"] ;
21 -> 23 ;
24 [label="gini = 0.0\nsamples = 2\nvalue = [6, 0]"] ;
23 -> 24 ;
25 [label="gini = 0.0\nsamples = 1\nvalue = [0, 1]"] ;
23 -> 25 ;
26 [label="gini = 0.0\nsamples = 9\nvalue = [0, 15]"] ;
20 -> 26 ;
27 [label="X[18] <= -49.5\ngini = 0.293\nsamples = 175\nvalue = [221, 48]"] ;
3 -> 27 ;
28 [label="X[0] <= 7.5\ngini = 0.305\nsamples = 20\nvalue = [6, 26]"] ;
27 -> 28 ;
29 [label="X[9] <= 16.5\ngini = 0.142\nsamples = 16\nvalue = [2, 24]"] ;
28 -> 29 ;
30 [label="X[5] <= 5.5\ngini = 0.298\nsamples = 6\nvalue = [2, 9]"] ;
29 -> 30 ;
31 [label="gini = 0.0\nsamples = 5\nvalue = [0, 9]"] ;
30 -> 31 ;
32 [label="gini = 0.0\nsamples = 1\nvalue = [2, 0]"] ;
30 -> 32 ;
33 [label="gini = 0.0\nsamples = 10\nvalue = [0, 15]"] ;
29 -> 33 ;
34 [label="X[1] <= 7534.5\ngini = 0.444\nsamples = 4\nvalue = [4, 2]"] ;
28 -> 34 ;
35 [label="gini = 0.0\nsamples = 1\nvalue = [0, 2]"] ;
34 -> 35 ;
36 [label="gini = 0.0\nsamples = 3\nvalue = [4, 0]"] ;
34 -> 36 ;
37 [label="X[7] <= 3.875\ngini = 0.168\nsamples = 155\nvalue = [215, 22]"] ;
27 -> 37 ;
38 [label="gini = 0.0\nsamples = 27\nvalue = [38, 0]"] ;
37 -> 38 ;
39 [label="X[16] <= 10.5\ngini = 0.197\nsamples = 128\nvalue = [177, 22]"] ;
37 -> 39 ;
40 [label="X[2] <= -49.5\ngini = 0.17\nsamples = 84\nvalue = [116, 12]"] ;
39 -> 40 ;
41 [label="X[5] <= 5.5\ngini = 0.355\nsamples = 7\nvalue = [3, 10]"] ;
40 -> 41 ;
42 [label="gini = 0.0\nsamples = 2\nvalue = [0, 4]"] ;
41 -> 42 ;
43 [label="X[18] <= 8652892.0\ngini = 0.444\nsamples = 5\nvalue = [3, 6]"] ;
41 -> 43 ;
44 [label="gini = 0.0\nsamples = 2\nvalue = [0, 3]"] ;
43 -> 44 ;
45 [label="X[18] <= 10400800.0\ngini = 0.5\nsamples = 3\nvalue = [3, 3]"] ;
43 -> 45 ;
46 [label="gini = 0.0\nsamples = 1\nvalue = [3, 0]"] ;
45 -> 46 ;
47 [label="gini = 0.0\nsamples = 2\nvalue = [0, 3]"] ;
45 -> 47 ;
48 [label="X[18] <= 2625.0\ngini = 0.034\nsamples = 77\nvalue = [113, 2]"] ;
40 -> 48 ;
49 [label="gini = 0.0\nsamples = 65\nvalue = [94, 0]"] ;
48 -> 49 ;
50 [label="X[5] <= 5.5\ngini = 0.172\nsamples = 12\nvalue = [19, 2]"] ;
48 -> 50 ;
51 [label="X[1] <= 13976.5\ngini = 0.298\nsamples = 6\nvalue = [9, 2]"] ;
50 -> 51 ;
52 [label="X[1] <= 9071.5\ngini = 0.48\nsamples = 3\nvalue = [3, 2]"] ;
51 -> 52 ;
53 [label="gini = 0.0\nsamples = 1\nvalue = [2, 0]"] ;
52 -> 53 ;
54 [label="X[18] <= 211042.5\ngini = 0.444\nsamples = 2\nvalue = [1, 2]"] ;
52 -> 54 ;
55 [label="gini = 0.0\nsamples = 1\nvalue = [0, 2]"] ;
54 -> 55 ;
56 [label="gini = 0.0\nsamples = 1\nvalue = [1, 0]"] ;
54 -> 56 ;
57 [label="gini = 0.0\nsamples = 3\nvalue = [6, 0]"] ;
51 -> 57 ;
58 [label="gini = 0.0\nsamples = 6\nvalue = [10, 0]"] ;
50 -> 58 ;
59 [label="X[3] <= 5.25\ngini = 0.242\nsamples = 44\nvalue = [61, 10]"] ;
39 -> 59 ;
60 [label="X[3] <= 4.167\ngini = 0.248\nsamples = 42\nvalue = [59, 10]"] ;
59 -> 60 ;
61 [label="gini = 0.0\nsamples = 1\nvalue = [1, 0]"] ;
60 -> 61 ;
62 [label="X[4] <= 2.5\ngini = 0.251\nsamples = 41\nvalue = [58, 10]"] ;
60 -> 62 ;
63 [label="X[18] <= 2111306.0\ngini = 0.242\nsamples = 37\nvalue = [55, 9]"] ;
62 -> 63 ;
64 [label="X[0] <= 7.5\ngini = 0.068\nsamples = 34\nvalue = [55, 2]"] ;
63 -> 64 ;
65 [label="X[18] <= 28431.0\ngini = 0.077\nsamples = 29\nvalue = [48, 2]"] ;
64 -> 65 ;
66 [label="gini = 0.0\nsamples = 26\nvalue = [46, 0]"] ;
65 -> 66 ;
67 [label="X[18] <= 136695.0\ngini = 0.5\nsamples = 3\nvalue = [2, 2]"] ;
65 -> 67 ;
68 [label="gini = 0.0\nsamples = 1\nvalue = [0, 2]"] ;
67 -> 68 ;
69 [label="gini = 0.0\nsamples = 2\nvalue = [2, 0]"] ;
67 -> 69 ;
70 [label="gini = 0.0\nsamples = 5\nvalue = [7, 0]"] ;
64 -> 70 ;
71 [label="gini = 0.0\nsamples = 3\nvalue = [0, 7]"] ;
63 -> 71 ;
72 [label="X[18] <= 5782522.0\ngini = 0.375\nsamples = 4\nvalue = [3, 1]"] ;
62 -> 72 ;
73 [label="gini = 0.0\nsamples = 3\nvalue = [3, 0]"] ;
72 -> 73 ;
74 [label="gini = 0.0\nsamples = 1\nvalue = [0, 1]"] ;
72 -> 74 ;
75 [label="gini = 0.0\nsamples = 2\nvalue = [2, 0]"] ;
59 -> 75 ;
76 [label="gini = 0.0\nsamples = 3\nvalue = [0, 5]"] ;
2 -> 76 ;
77 [label="X[9] <= 62.5\ngini = 0.32\nsamples = 3\nvalue = [1, 4]"] ;
1 -> 77 ;
78 [label="gini = 0.0\nsamples = 2\nvalue = [0, 4]"] ;
77 -> 78 ;
79 [label="gini = 0.0\nsamples = 1\nvalue = [1, 0]"] ;
77 -> 79 ;
80 [label="X[11] <= 1.5\ngini = 0.49\nsamples = 177\nvalue = [123, 163]"] ;
0 -> 80 [labeldistance=2.5, labelangle=-45, headlabel="False"] ;
81 [label="X[18] <= -37.0\ngini = 0.498\nsamples = 142\nvalue = [121, 106]"] ;
80 -> 81 ;
82 [label="gini = 0.0\nsamples = 51\nvalue = [0, 87]"] ;
81 -> 82 ;
83 [label="X[2] <= -48.0\ngini = 0.235\nsamples = 91\nvalue = [121, 19]"] ;
81 -> 83 ;
84 [label="gini = 0.0\nsamples = 9\nvalue = [0, 15]"] ;
83 -> 84 ;
85 [label="X[18] <= 947578.0\ngini = 0.062\nsamples = 82\nvalue = [121, 4]"] ;
83 -> 85 ;
86 [label="X[2] <= 333.5\ngini = 0.032\nsamples = 80\nvalue = [121, 2]"] ;
85 -> 86 ;
87 [label="gini = 0.0\nsamples = 42\nvalue = [63, 0]"] ;
86 -> 87 ;
88 [label="X[9] <= 20.5\ngini = 0.064\nsamples = 38\nvalue = [58, 2]"] ;
86 -> 88 ;
89 [label="gini = 0.0\nsamples = 11\nvalue = [17, 0]"] ;
88 -> 89 ;
90 [label="X[5] <= 10.5\ngini = 0.089\nsamples = 27\nvalue = [41, 2]"] ;
88 -> 90 ;
91 [label="X[18] <= 150365.5\ngini = 0.245\nsamples = 5\nvalue = [6, 1]"] ;
90 -> 91 ;
92 [label="gini = 0.0\nsamples = 4\nvalue = [6, 0]"] ;
91 -> 92 ;
93 [label="gini = 0.0\nsamples = 1\nvalue = [0, 1]"] ;
91 -> 93 ;
94 [label="X[7] <= 6.167\ngini = 0.054\nsamples = 22\nvalue = [35, 1]"] ;
90 -> 94 ;
95 [label="gini = 0.0\nsamples = 11\nvalue = [12, 0]"] ;
94 -> 95 ;
96 [label="X[2] <= 369.5\ngini = 0.08\nsamples = 11\nvalue = [23, 1]"] ;
94 -> 96 ;
97 [label="gini = 0.0\nsamples = 1\nvalue = [0, 1]"] ;
96 -> 97 ;
98 [label="gini = 0.0\nsamples = 10\nvalue = [23, 0]"] ;
96 -> 98 ;
99 [label="gini = 0.0\nsamples = 2\nvalue = [0, 2]"] ;
85 -> 99 ;
100 [label="X[5] <= 11.0\ngini = 0.065\nsamples = 35\nvalue = [2, 57]"] ;
80 -> 100 ;
101 [label="gini = 0.0\nsamples = 30\nvalue = [0, 51]"] ;
100 -> 101 ;
102 [label="X[0] <= 12.5\ngini = 0.375\nsamples = 5\nvalue = [2, 6]"] ;
100 -> 102 ;
103 [label="X[7] <= 5.125\ngini = 0.5\nsamples = 2\nvalue = [2, 2]"] ;
102 -> 103 ;
104 [label="gini = 0.0\nsamples = 1\nvalue = [0, 2]"] ;
103 -> 104 ;
105 [label="gini = 0.0\nsamples = 1\nvalue = [2, 0]"] ;
103 -> 105 ;
106 [label="gini = 0.0\nsamples = 3\nvalue = [0, 4]"] ;
102 -> 106 ;
}